SVM-light Version V6.20
0 # kernel type
3 # kernel parameter -d 
1 # kernel parameter -g 
1 # kernel parameter -s 
1 # kernel parameter -r 
empty# kernel parameter -u 
701 # highest feature index 
241 # number of training documents 
2 # number of support vectors plus 1 
0 # threshold b, each following line is a SV (starting with alpha*y)
1 1:0.50438511 2:0.68002313 3:-0.57053149 4:0.070440009 5:-0.68594837 6:0.86106163 7:-0.01284704 8:0.12679237 9:-0.39373231 10:-0.36315313 11:0.05431281 13:0.73712355 14:-0.21954221 15:0.33670321 16:0.94952428 17:-0.18070596 18:0.68009657 19:-0.1964415 20:-0.51071304 21:-0.44639239 22:0.26128012 23:0.28056452 24:0.11237381 25:-0.59981775 27:-0.94437736 30:0.052297939 31:-0.72192687 32:-0.5199241 33:0.2758725 34:-0.53159231 35:0.014173268 36:0.35020459 37:-0.16118775 38:-0.068281144 40:-0.67439687 41:0.22099054 42:-0.47806183 43:0.12607628 44:-0.31384256 45:-0.32684085 47:0.26128012 48:0.13090184 49:0.97798139 50:0.24259552 51:-0.28890046 53:-0.92872161 54:-0.81217057 55:0.036981829 56:-0.36453912 57:-0.59053648 59:-0.49489802 60:0.14729019 61:-0.38183615 62:0.55995888 64:0.41997042 65:-1.4395618 66:0.72007817 68:0.11928514 69:0.10829705 70:0.083538175 72:0.78841746 73:0.069167264 74:0.51785564 75:-0.2190216 76:0.26385739 77:0.33483121 79:-0.017640255 80:0.023060864 81:-0.22987384 82:-0.44155264 83:-0.043550886 84:0.18403211 85:-0.26345742 86:0.77852339 87:0.031891629 88:-0.12280347 91:0.15263215 92:0.32155272 93:0.057420515 94:-0.63758945 95:-0.32269076 96:0.080282696 97:-0.058213729 98:-0.65934575 99:0.52812171 100:-1.3947718 101:-0.072518982 102:0.49228936 103:1.0944548 105:0.39962921 106:0.0094957445 108:-0.20793241 109:-0.16190661 112:0.053312626 113:1.1654865 114:0.15139417 115:-0.96392363 116:-1.2198107 117:-0.53431904 118:-0.38289055 119:0.32127437 120:1.5886889 121:0.099727206 122:0.019019207 123:-0.17120562 124:-0.25756761 126:-0.0035980246 127:-0.057655722 128:-0.049371868 129:0.12972802 130:0.073436864 133:0.54225922 134:-0.81830519 135:0.46258146 136:-0.07714203 137:-0.72192687 138:0.45687604 139:-0.1385479 140:-0.44847295 142:0.023370152 143:0.014113093 144:0.78812057 145:-0.11609329 146:-0.18195784 147:0.69971645 148:0.31531698 149:0.12300027 150:0.23538101 151:0.67037559 152:-1.0501633 153:-0.48048383 154:0.16801798 155:0.56405395 158:1.7522744 159:-0.12568094 162:-0.32185236 163:-0.0053664688 164:1.4717032 165:0.21554181 168:-0.049371868 171:-0.070459589 172:0.50749367 173:-0.23910294 174:0.77666748 175:-0.2812036 176:0.27572441 177:0.086868443 178:0.23537891 179:0.21168683 180:0.51827961 183:0.29159811 185:-0.29091793 186:0.79924947 187:0.12907296 188:0.28247908 189:5.0124569 190:-0.11231335 192:-0.45608774 193:-0.11532179 194:0.88919818 196:0.19603795 197:-1.0757145 198:-0.064084612 200:-0.13123631 201:-0.54841197 202:-1.5761098 203:-0.030418253 204:-1.056613 205:0.043848936 206:0.0094957445 207:-4.6727567 208:-0.06852141 209:0.14908303 210:-0.24731204 211:-1.5008606 212:-0.36692294 213:-0.24489364 214:0.96832639 215:-0.60290092 216:0.92527527 218:-0.50434428 219:1.1707979 220:0.033838935 221:0.79724133 226:-0.137545 228:-0.01147941 230:1.7121847 233:-1.5528513 235:-0.065150276 236:-1.6960548 237:-1.3678193 239:-0.51811695 241:0.053033635 242:-0.15908241 243:0.2016834 244:-0.5258913 245:-0.27998304 247:0.25169548 248:-0.61704606 249:1.5333685 250:-0.13894838 251:0.39803454 253:-0.58267385 254:0.10561579 255:0.43863174 256:1.1221436 257:-0.12290261 258:0.13510263 259:-1.7657392 260:-1.061023 261:1.3331838 262:0.26128012 263:-0.93785822 265:0.054519366 266:-0.97151458 267:-0.19123912 268:0.11737598 269:-0.28242576 270:-0.44853413 272:-0.042498767 273:0.30145499 275:-0.25369668 276:0.62518972 277:-0.051993169 278:-0.1614345 279:0.36164194 280:1.2331679 281:0.1247588 282:-0.080138974 283:1.1956339 284:0.10985281 285:-1.4178002 286:-0.24564482 290:0.15139417 291:0.2758725 292:0.63483268 294:0.33074743 295:-0.39493671 296:0.68435746 297:-0.083102219 298:-0.099404097 299:-0.29472801 300:-0.18259521 302:0.30925307 303:-1.4845824 304:0.011732064 305:-0.29789764 306:0.31910059 307:-1.2271608 308:-0.59981775 309:-0.44830534 310:-1.3228545 311:-0.38924646 312:0.16517073 313:-0.66624212 314:0.070677198 315:0.32514998 316:0.39803454 317:0.80334777 318:1.0454271 319:0.031891629 322:0.91004092 323:0.033642203 324:0.34944987 325:0.084226258 326:1.0326566 327:-0.087435111 328:-0.0011455304 329:-0.71362156 330:0.96732372 332:-1.0951546 334:-0.016158614 335:0.51906735 336:0.37105897 337:0.14977017 338:0.052322023 340:0.39803454 341:-0.3840971 342:-0.19067344 343:-0.11079635 345:0.24098039 346:-0.2390177 347:0.32428992 348:0.89321947 349:-0.21241273 350:0.11084457 351:-0.46967575 352:1.5214309 354:0.26128012 355:-0.81418651 356:0.2412602 357:1.0678335 358:0.092929438 359:-0.099824175 360:0.13116784 361:-0.038401339 362:1.0351402 363:-2.6963804 365:1.7762016 366:1.318599 368:0.10091434 369:0.20060441 371:-0.99551117 372:0.47912663 373:-0.84441829 375:-0.59981775 376:1.3936435 379:0.98930305 380:-0.12363972 381:0.23789012 382:0.09272103 383:-1.1606439 384:-0.29789764 385:-0.073052771 386:0.0087383008 387:-0.041979715 388:0.11084736 389:0.42648825 390:1.2438269 392:0.0094957445 394:-0.16431057 395:0.34046167 396:0.61948675 397:0.13083355 398:-0.49869585 399:-0.060505863 400:0.32305723 401:0.11084736 402:0.14592166 403:-0.048809417 404:-1.743962 405:0.23099449 406:-0.18741985 407:0.16446264 408:2.8089442 409:0.12449733 410:0.74203813 411:0.52684474 413:0.094096497 415:0.031423811 416:0.56578225 417:1.2196541 418:-0.51105797 419:-1.2126215 420:-0.036367502 421:-0.019048732 422:-0.062671952 423:0.11084736 424:0.057738654 425:-0.01147941 426:-0.0083667906 427:0.43600976 428:-0.19665256 429:-2.0345025 431:-0.30194956 432:-1.3528875 433:0.037280627 434:-0.074731313 435:-0.61699373 436:-0.76179594 437:1.1562613 438:0.19542155 439:0.78483725 442:-0.63531464 443:0.25588456 444:0.013573816 445:-1.8289571 446:0.89367944 448:0.39803454 449:0.13700309 450:1.3441595 451:-0.27628365 452:-0.66867286 453:0.18669994 454:-0.76393056 455:0.031891629 457:0.16517073 458:0.70669234 459:0.23461546 461:0.97067571 462:0.76160371 463:-0.69127256 464:-0.031151852 467:1.3211107 469:0.031891629 470:0.28037295 471:-0.29451534 473:0.44908631 474:0.27351117 476:-0.50161147 477:-0.30103737 478:-0.53431904 479:-0.53431904 480:0.5205068 481:0.67563951 483:-0.67534804 484:-1.0922861 485:-0.89811504 486:-1.1034473 487:-0.4303852 490:0.64159709 491:1.2008171 492:0.28160578 493:-0.53431904 494:0.28160578 495:0.043212347 496:0.28582919 497:0.30050057 498:0.301254 499:0.18201135 500:-0.15855902 503:0.71637505 504:-0.16270378 505:0.57030731 506:0.51836371 508:0.4720445 509:-0.82259876 510:0.28309259 511:-1.2315742 513:-0.16309841 515:-0.27516261 517:-0.01147941 518:0.16015162 520:0.39691362 521:-1.1938568 522:-0.33429909 523:0.57048523 524:-1.4357116 526:0.21877 527:1.2812536 528:1.0246397 530:0.85089642 531:-0.13380851 533:0.27736175 534:2.1002412 535:-0.4475683 536:1.0820596 538:0.32386607 540:0.16884837 541:-0.05466222 542:0.48308471 543:-0.42316583 545:0.21194705 549:0.52871776 551:-0.17652979 552:1.3025478e-13 553:-0.070998363 554:-0.15855902 555:0.2758725 556:1.8748152 558:0.039924681 559:-0.59981775 560:0.70064831 561:-0.6426515 562:-1.632587 564:-0.21468952 565:-0.16431057 567:-0.12846594 568:0.11045239 569:-0.11570703 570:-0.064910918 571:-1.0204567 572:-0.25608623 573:-0.1287085 574:-0.2006665 575:-0.32853457 576:0.0068616718 577:0.087400079 578:0.27574018 579:0.76652646 580:0.12986779 581:-0.11047094 582:-1.1625392 583:-0.11982329 584:-0.7635085 585:0.40937757 586:0.32428992 587:0.7253406 588:0.89847153 589:0.301254 591:0.11084736 592:0.053309128 594:0.28163373 595:0.091194957 596:0.061774001 597:0.55984396 599:0.47021028 600:-0.66781408 601:0.075386703 602:-0.053164817 604:-0.86994225 605:-1.9207683 606:0.1757537 607:-0.34638298 609:-0.072076209 610:2.1160586 611:-0.174266 613:-0.12131874 614:-0.81932247 616:0.23170967 617:-1.7121589 619:0.0018869132 620:-0.56666487 622:-1.061023 623:0.008419631 625:0.23011383 626:0.066857934 627:-0.26762623 628:0.04333695 629:0.0094957445 631:0.36681703 632:-0.010351323 634:1.2819582 637:-1.2249521 638:1.9563541 640:0.11040915 641:0.28429431 642:-0.60921156 643:-1.3029472 644:-0.35214344 646:-1.4280368 649:0.078680784 650:-0.028450856 651:0.76435143 652:-0.4629986 653:-0.55990386 654:0.15375994 655:-0.31981105 656:0.22367442 657:-0.51170295 658:-0.58237946 659:0.15911099 660:1.5128511 661:-0.42575464 662:0.30299318 663:0.038391668 665:-0.32793117 666:0.71882719 667:0.029666202 668:-1.2290512 670:-0.067592874 671:0.28674984 673:0.17093763 674:0.17448461 675:0.026345935 676:-0.0026487685 677:0.22981228 678:0.014113093 679:0.15984815 680:-0.3957428 681:0.2758725 682:1.5406849 684:-0.17660226 686:-0.35766527 687:0.61614597 688:-0.01147941 689:0.40398806 691:-0.89679062 692:-1.3613641 693:-0.27632946 694:-0.63729751 695:0.044980519 696:-0.53416067 697:-0.30463836 698:-0.31661388 699:0.41941181 700:-0.48813057 #
